digraph Tree {
node [shape=box, fontname="helvetica"] ;
edge [fontname="helvetica"] ;
0 [label="x[3] <= 0.8\nentropy = 1.583\nsamples = 100\nvalue = [31, 35, 34]"] ;
1 [label="entropy = 0.0\nsamples = 31\nvalue = [31, 0, 0]"] ;
0 -> 1 [labeldistance=2.5, labelangle=45, headlabel="True"] ;
2 [label="x[3] <= 1.75\nentropy = 1.0\nsamples = 69\nvalue = [0, 35, 34]"] ;
0 -> 2 [labeldistance=2.5, labelangle=-45, headlabel="False"] ;
3 [label="x[2] <= 5.35\nentropy = 0.485\nsamples = 38\nvalue = [0, 34, 4]"] ;
2 -> 3 ;
4 [label="entropy = 0.31\nsamples = 36\nvalue = [0, 34, 2]"] ;
3 -> 4 ;
5 [label="entropy = 0.0\nsamples = 2\nvalue = [0, 0, 2]"] ;
3 -> 5 ;
6 [label="x[2] <= 4.85\nentropy = 0.206\nsamples = 31\nvalue = [0, 1, 30]"] ;
2 -> 6 ;
7 [label="entropy = 0.918\nsamples = 3\nvalue = [0, 1, 2]"] ;
6 -> 7 ;
8 [label="entropy = 0.0\nsamples = 28\nvalue = [0, 0, 28]"] ;
6 -> 8 ;
}